<?xml version="1.0"?>
<opencv_storage>
<cascade>
  <stageType>BOOST</stageType>
  <featureType>HAAR</featureType>
  <height>40</height>
  <width>120</width>
  <stageParams>
    <boostType>GAB</boostType>
    <minHitRate>9.9500000476837158e-01</minHitRate>
    <maxFalseAlarm>5.0000000000000000e-01</maxFalseAlarm>
    <weightTrimRate>9.4999999999999996e-01</weightTrimRate>
    <maxDepth>1</maxDepth>
    <maxWeakCount>100</maxWeakCount></stageParams>
  <featureParams>
    <maxCatCount>0</maxCatCount>
    <featSize>1</featSize>
    <mode>ALL</mode></featureParams>
  <stageNum>20</stageNum>
  <stages>
    <!-- stage 0 -->
    <_>
      <maxWeakCount>9</maxWeakCount>
      <stageThreshold>-1.5092773437500000e+00</stageThreshold>
      <weakClassifiers>
        <_>
          <internalNodes>
            0 -1 13 2.1428767591714859e-02</internalNodes>
          <leafValues>
            -6.6803842782974243e-01 6.8207621574401855e-01</leafValues></_>
        <_>
          <internalNodes>
            0 -1 7 -8.3916708827018738e-02</internalNodes>
          <leafValues>
            7.2272247076034546e-01 -3.6557811498641968e-01</leafValues></_>
        <_>
          <internalNodes>
            0 -1 103 2.8503709472715855e-03</internalNodes>
          <leafValues>
            -3.1353214383125305e-01 6.3528257608413696e-01</leafValues></_>
        <_>
          <internalNodes>
            0 -1 139 -5.3085237741470337e-03</internalNodes>
          <leafValues>
            6.2952309846878052e-01 -3.0473151803016663e-01</leafValues></_>
        <_>
          <internalNodes>
            0 -1 64 1.9795638509094715e-03</internalNodes>
          <leafValues>
            -2.3156553506851196e-01 7.6595264673233032e-01</leafValues></_>
        <_>
          <internalNodes>
            0 -1 52 5.6048348778858781e-04</internalNodes>
          <leafValues>
            -3.1160995364189148e-01 6.6956490278244019e-01</leafValues></_>
        <_>
          <internalNodes>
            0 -1 72 9.4301498029381037e-04</internalNodes>
          <leafValues>
            -2.3998926579952240e-01 6.8032580614089966e-01</leafValues></_>
        <_>
          <internalNodes>
            0 -1 68 -1.7430300358682871e-03</internalNodes>
          <leafValues>
            6.5133595466613770e-01 -2.6982963085174561e-01</leafValues></_>
        <_>
          <internalNodes>
            0 -1 75 3.4448817372322083e-02</internalNodes>
          <leafValues>
            2.7528214454650879e-01 -8.0027812719345093e-01</leafValues></_></weakClassifiers></_>
    <!-- stage 1 -->
    <_>
      <maxWeakCount>8</maxWeakCount>
      <stageThreshold>-1.3983108997344971e+00</stageThreshold>
      <weakClassifiers>
        <_>
          <internalNodes>
            0 -1 27 -6.9652825593948364e-02</internalNodes>
          <leafValues>
            5.5896610021591187e-01 -6.0128325223922729e-01</leafValues></_>
        <_>
          <internalNodes>
            0 -1 37 -7.1392189711332321e-03</internalNodes>
          <leafValues>
            4.5954704284667969e-01 -5.0776243209838867e-01</leafValues></_>
        <_>
          <internalNodes>
            0 -1 22 1.5278972685337067e-02</internalNodes>
          <leafValues>
            -3.3147147297859192e-01 5.7759553194046021e-01</leafValues></_>
        <_>
          <internalNodes>
            0 -1 159 2.3928956943564117e-04</internalNodes>
          <leafValues>
            -2.5385928153991699e-01 6.6246408224105835e-01</leafValues></_>
        <_>
          <internalNodes>
            0 -1 154 1.1950947809964418e-03</internalNodes>
          <leafValues>
            -2.7422565221786499e-01 7.5996685028076172e-01</leafValues></_>
        <_>
          <internalNodes>
            0 -1 151 6.9083739072084427e-04</internalNodes>
          <leafValues>
            -3.1985494494438171e-01 6.1200714111328125e-01</leafValues></_>
        <_>
          <internalNodes>
            0 -1 59 9.0159429237246513e-03</internalNodes>
          <leafValues>
            -3.1192785501480103e-01 5.7194495201110840e-01</leafValues></_>
        <_>
          <internalNodes>
            0 -1 93 8.2326568663120270e-03</internalNodes>
          <leafValues>
            2.8575065732002258e-01 -6.9328635931015015e-01</leafValues></_></weakClassifiers></_>
    <!-- stage 2 -->
    <_>
      <maxWeakCount>9</maxWeakCount>
      <stageThreshold>-1.2854263782501221e+00</stageThreshold>
      <weakClassifiers>
        <_>
          <internalNodes>
            0 -1 170 -1.1660754680633545e-02</internalNodes>
          <leafValues>
            5.9262853860855103e-01 -5.1527833938598633e-01</leafValues></_>
        <_>
          <internalNodes>
            0 -1 77 -1.7678180709481239e-02</internalNodes>
          <leafValues>
            6.4196783304214478e-01 -2.8918138146400452e-01</leafValues></_>
        <_>
          <internalNodes>
            0 -1 124 6.5518775954842567e-04</internalNodes>
          <leafValues>
            -2.8586268424987793e-01 6.0592269897460938e-01</leafValues></_>
        <_>
          <internalNodes>
            0 -1 120 8.8513351511210203e-04</internalNodes>
          <leafValues>
            -2.7514019608497620e-01 7.0404326915740967e-01</leafValues></_>
        <_>
          <internalNodes>
            0 -1 119 4.6183852828107774e-04</internalNodes>
          <leafValues>
            -2.9117658734321594e-01 6.2183994054794312e-01</leafValues></_>
        <_>
          <internalNodes>
            0 -1 88 -1.6312800347805023e-02</internalNodes>
          <leafValues>
            -8.5028970241546631e-01 2.6719969511032104e-01</leafValues></_>
        <_>
          <internalNodes>
            0 -1 135 1.4300958719104528e-03</internalNodes>
          <leafValues>
            -2.9519462585449219e-01 5.5822342634201050e-01</leafValues></_>
        <_>
          <internalNodes>
            0 -1 105 1.7849891446530819e-03</internalNodes>
          <leafValues>
            2.2747851908206940e-01 -8.0309003591537476e-01</leafValues></_>
        <_>
          <internalNodes>
            0 -1 112 -7.9330208245664835e-04</internalNodes>
          <leafValues>
            -8.0745422840118408e-01 1.7919257283210754e-01</leafValues></_></weakClassifiers></_>
    <!-- stage 3 -->
    <_>
      <maxWeakCount>9</maxWeakCount>
      <stageThreshold>-1.0016306638717651e+00</stageThreshold>
      <weakClassifiers>
        <_>
          <internalNodes>
            0 -1 23 1.3455010950565338e-02</internalNodes>
          <leafValues>
            -6.0393118858337402e-01 4.3971118330955505e-01</leafValues></_>
        <_>
          <internalNodes>
            0 -1 144 1.4548311010003090e-03</internalNodes>
          <leafValues>
            -2.7430897951126099e-01 6.8662643432617188e-01</leafValues></_>
        <_>
          <internalNodes>
            0 -1 146 8.4811355918645859e-04</internalNodes>
          <leafValues>
            -2.9427534341812134e-01 6.4591687917709351e-01</leafValues></_>
        <_>
          <internalNodes>
            0 -1 89 -5.2303008735179901e-02</internalNodes>
          <leafValues>
            5.5790477991104126e-01 -3.2537746429443359e-01</leafValues></_>
        <_>
          <internalNodes>
            0 -1 99 -1.3678744608114357e-06</internalNodes>
          <leafValues>
            6.0159993171691895e-01 -2.8756776452064514e-01</leafValues></_>
        <_>
          <internalNodes>
            0 -1 99 1.2860555216320790e-06</internalNodes>
          <leafValues>
            -3.8256841897964478e-01 5.4424536228179932e-01</leafValues></_>
        <_>
          <internalNodes>
            0 -1 65 -5.6465755915269256e-04</internalNodes>
          <leafValues>
            -7.0380049943923950e-01 3.0707949399948120e-01</leafValues></_>
        <_>
          <internalNodes>
            0 -1 47 6.0465035494416952e-04</internalNodes>
          <leafValues>
            -3.5343140363693237e-01 5.5034482479095459e-01</leafValues></_>
        <_>
          <internalNodes>
            0 -1 50 1.3709577615372837e-06</internalNodes>
          <leafValues>
            -4.1212823987007141e-01 4.3068650364875793e-01</leafValues></_></weakClassifiers></_>
    <!-- stage 4 -->
    <_>
      <maxWeakCount>10</maxWeakCount>
      <stageThreshold>-1.3642841577529907e+00</stageThreshold>
      <weakClassifiers>
        <_>
          <internalNodes>
            0 -1 95 1.6583079099655151e-01</internalNodes>
          <leafValues>
            -5.4855418205261230e-01 5.9020853042602539e-01</leafValues></_>
        <_>
          <internalNodes>
            0 -1 178 1.0154138319194317e-02</internalNodes>
          <leafValues>
            -2.4831730127334595e-01 6.4095818996429443e-01</leafValues></_>
        <_>
          <internalNodes>
            0 -1 48 1.7694838345050812e-02</internalNodes>
          <leafValues>
            2.1396481990814209e-01 -7.6380759477615356e-01</leafValues></_>
        <_>
          <internalNodes>
            0 -1 62 2.6927245780825615e-03</internalNodes>
          <leafValues>
            -2.4691589176654816e-01 6.0935711860656738e-01</leafValues></_>
        <_>
          <internalNodes>
            0 -1 60 -3.7470001261681318e-03</internalNodes>
          <leafValues>
            7.1035569906234741e-01 -2.4660177528858185e-01</leafValues></_>
        <_>
          <internalNodes>
            0 -1 83 -5.0193408969789743e-04</internalNodes>
          <leafValues>
            -6.7050725221633911e-01 2.4311089515686035e-01</leafValues></_>
        <_>
          <internalNodes>
            0 -1 5 -3.7025194615125656e-04</internalNodes>
          <leafValues>
            -8.1712895631790161e-01 1.3518144190311432e-01</leafValues></_>
        <_>
          <internalNodes>
            0 -1 101 1.8972258549183607e-03</internalNodes>
          <leafValues>
            -3.1979650259017944e-01 4.4729882478713989e-01</leafValues></_>
        <_>
          <internalNodes>
            0 -1 55 5.1011545583605766e-03</internalNodes>
          <leafValues>
            2.4301905930042267e-01 -6.8907254934310913e-01</leafValues></_>
        <_>
          <internalNodes>
            0 -1 149 6.7723018582910299e-04</internalNodes>
          <leafValues>
            -3.2443442940711975e-01 4.4574269652366638e-01</leafValues></_></weakClassifiers></_>
    <!-- stage 5 -->
    <_>
      <maxWeakCount>7</maxWeakCount>
      <stageThreshold>-1.4835016727447510e+00</stageThreshold>
      <weakClassifiers>
        <_>
          <internalNodes>
            0 -1 39 1.9443256780505180e-02</internalNodes>
          <leafValues>
            -6.1904764175415039e-01 5.7199680805206299e-01</leafValues></_>
        <_>
          <internalNodes>
            0 -1 33 -4.1212461888790131e-02</internalNodes>
          <leafValues>
            5.4136371612548828e-01 -3.7306350469589233e-01</leafValues></_>
        <_>
          <internalNodes>
            0 -1 148 -2.9550443287007511e-04</internalNodes>
          <leafValues>
            -9.1390401124954224e-01 2.1503734588623047e-01</leafValues></_>
        <_>
          <internalNodes>
            0 -1 147 2.2967701079323888e-04</internalNodes>
          <leafValues>
            2.9354959726333618e-01 -7.8713524341583252e-01</leafValues></_>
        <_>
          <internalNodes>
            0 -1 5 2.9886898119002581e-04</internalNodes>
          <leafValues>
            1.2844377756118774e-01 -7.9676675796508789e-01</leafValues></_>
        <_>
          <internalNodes>
            0 -1 110 2.8183390386402607e-03</internalNodes>
          <leafValues>
            -2.7661880850791931e-01 6.3242316246032715e-01</leafValues></_>
        <_>
          <internalNodes>
            0 -1 131 -1.5742242976557463e-04</internalNodes>
          <leafValues>
            -6.5174949169158936e-01 2.2888243198394775e-01</leafValues></_></weakClassifiers></_>
    <!-- stage 6 -->
    <_>
      <maxWeakCount>10</maxWeakCount>
      <stageThreshold>-1.4754793643951416e+00</stageThreshold>
      <weakClassifiers>
        <_>
          <internalNodes>
            0 -1 32 -1.0608816891908646e-01</internalNodes>
          <leafValues>
            5.9128063917160034e-01 -5.4808104038238525e-01</leafValues></_>
        <_>
          <internalNodes>
            0 -1 66 -1.0403073247289285e-04</internalNodes>
          <leafValues>
            -8.1262564659118652e-01 1.7618381977081299e-01</leafValues></_>
        <_>
          <internalNodes>
            0 -1 98 -8.9478585869073868e-03</internalNodes>
          <leafValues>
            6.4489543437957764e-01 -2.5232940912246704e-01</leafValues></_>
        <_>
          <internalNodes>
            0 -1 66 8.9444059995003045e-05</internalNodes>
          <leafValues>
            3.0537998676300049e-01 -7.0551717281341553e-01</leafValues></_>
        <_>
          <internalNodes>
            0 -1 41 -2.6284016668796539e-02</internalNodes>
          <leafValues>
            5.3378516435623169e-01 -3.2950711250305176e-01</leafValues></_>
        <_>
          <internalNodes>
            0 -1 114 -2.4404362775385380e-03</internalNodes>
          <leafValues>
            5.4140979051589966e-01 -2.4403776228427887e-01</leafValues></_>
        <_>
          <internalNodes>
            0 -1 81 1.9451705738902092e-03</internalNodes>
          <leafValues>
            -2.1489614248275757e-01 5.7269811630249023e-01</leafValues></_>
        <_>
          <internalNodes>
            0 -1 76 1.6420595347881317e-03</internalNodes>
          <leafValues>
            -2.8457266092300415e-01 5.6452244520187378e-01</leafValues></_>
        <_>
          <internalNodes>
            0 -1 169 -1.7731815576553345e-02</internalNodes>
          <leafValues>
            5.9578418731689453e-01 -2.6170971989631653e-01</leafValues></_>
        <_>
          <internalNodes>
            0 -1 140 4.6874134568497539e-04</internalNodes>
          <leafValues>
            1.7809070646762848e-01 -7.8035897016525269e-01</leafValues></_></weakClassifiers></_>
    <!-- stage 7 -->
    <_>
      <maxWeakCount>10</maxWeakCount>
      <stageThreshold>-1.0668796300888062e+00</stageThreshold>
      <weakClassifiers>
        <_>
          <internalNodes>
            0 -1 29 1.5573092969134450e-03</internalNodes>
          <leafValues>
            -5.5210858583450317e-01 3.8246130943298340e-01</leafValues></_>
        <_>
          <internalNodes>
            0 -1 176 3.0984986573457718e-02</internalNodes>
          <leafValues>
            -2.5462198257446289e-01 5.8760875463485718e-01</leafValues></_>
        <_>
          <internalNodes>
            0 -1 168 4.0571708232164383e-03</internalNodes>
          <leafValues>
            -2.3037058115005493e-01 5.9361475706100464e-01</leafValues></_>
        <_>
          <internalNodes>
            0 -1 115 -1.1918418749701232e-06</internalNodes>
          <leafValues>
            4.6478658914566040e-01 -2.6491132378578186e-01</leafValues></_>
        <_>
          <internalNodes>
            0 -1 116 -1.3906711246818304e-03</internalNodes>
          <leafValues>
            3.7946543097496033e-01 -3.2014691829681396e-01</leafValues></_>
        <_>
          <internalNodes>
            0 -1 128 2.5654286146163940e-03</internalNodes>
          <leafValues>
            -2.2466482222080231e-01 5.8883947134017944e-01</leafValues></_>
        <_>
          <internalNodes>
            0 -1 49 -1.4586645420422428e-06</internalNodes>
          <leafValues>
            4.2646458745002747e-01 -2.7666324377059937e-01</leafValues></_>
        <_>
          <internalNodes>
            0 -1 0 1.4923706185072660e-03</internalNodes>
          <leafValues>
            1.8559896945953369e-01 -6.1643427610397339e-01</leafValues></_>
        <_>
          <internalNodes>
            0 -1 150 1.7987377941608429e-03</internalNodes>
          <leafValues>
            -2.2922080755233765e-01 5.2875077724456787e-01</leafValues></_>
        <_>
          <internalNodes>
            0 -1 133 1.3722439007324283e-06</internalNodes>
          <leafValues>
            -2.4256853759288788e-01 4.9952262639999390e-01</leafValues></_></weakClassifiers></_>
    <!-- stage 8 -->
    <_>
      <maxWeakCount>9</maxWeakCount>
      <stageThreshold>-1.1552798748016357e+00</stageThreshold>
      <weakClassifiers>
        <_>
          <internalNodes>
            0 -1 16 1.0477018542587757e-02</internalNodes>
          <leafValues>
            -6.0321444272994995e-01 4.0657803416252136e-01</leafValues></_>
        <_>
          <internalNodes>
            0 -1 107 -7.7385557233355939e-05</internalNodes>
          <leafValues>
            -8.6513030529022217e-01 1.7044633626937866e-01</leafValues></_>
        <_>
          <internalNodes>
            0 -1 34 7.1937931352294981e-05</internalNodes>
          <leafValues>
            1.4074531197547913e-01 -8.6645919084548950e-01</leafValues></_>
        <_>
          <internalNodes>
            0 -1 84 2.4830488860607147e-01</internalNodes>
          <leafValues>
            -2.6305696368217468e-01 6.9379436969757080e-01</leafValues></_>
        <_>
          <internalNodes>
            0 -1 35 -5.1013958000112325e-05</internalNodes>
          <leafValues>
            -7.7668726444244385e-01 2.5199022889137268e-01</leafValues></_>
        <_>
          <internalNodes>
            0 -1 30 -2.6561006903648376e-02</internalNodes>
          <leafValues>
            6.9507193565368652e-01 -2.6263451576232910e-01</leafValues></_>
        <_>
          <internalNodes>
            0 -1 158 -1.8210519920103252e-04</internalNodes>
          <leafValues>
            -9.0803796052932739e-01 1.9714552164077759e-01</leafValues></_>
        <_>
          <internalNodes>
            0 -1 104 3.1977887265384197e-03</internalNodes>
          <leafValues>
            -3.0667209625244141e-01 5.6967902183532715e-01</leafValues></_>
        <_>
          <internalNodes>
            0 -1 19 -1.8578961491584778e-02</internalNodes>
          <leafValues>
            6.2515431642532349e-01 -2.1339942514896393e-01</leafValues></_></weakClassifiers></_>
    <!-- stage 9 -->
    <_>
      <maxWeakCount>11</maxWeakCount>
      <stageThreshold>-1.6612341403961182e+00</stageThreshold>
      <weakClassifiers>
        <_>
          <internalNodes>
            0 -1 20 2.5629004836082458e-01</internalNodes>
          <leafValues>
            -5.0983899831771851e-01 4.3918919563293457e-01</leafValues></_>
        <_>
          <internalNodes>
            0 -1 25 3.4813664853572845e-02</internalNodes>
          <leafValues>
            -2.6886564493179321e-01 5.1751393079757690e-01</leafValues></_>
        <_>
          <internalNodes>
            0 -1 164 1.1266950750723481e-03</internalNodes>
          <leafValues>
            -2.2274409234523773e-01 5.9949785470962524e-01</leafValues></_>
        <_>
          <internalNodes>
            0 -1 163 9.3496782938018441e-04</internalNodes>
          <leafValues>
            -3.2096883654594421e-01 5.8362418413162231e-01</leafValues></_>
        <_>
          <internalNodes>
            0 -1 85 1.3308500683706370e-06</internalNodes>
          <leafValues>
            -3.1324681639671326e-01 4.1327306628227234e-01</leafValues></_>
        <_>
          <internalNodes>
            0 -1 10 -4.3542698025703430e-02</internalNodes>
          <leafValues>
            6.5757030248641968e-01 -2.1244260668754578e-01</leafValues></_>
        <_>
          <internalNodes>
            0 -1 15 1.1997953057289124e-02</internalNodes>
          <leafValues>
            -2.5888052582740784e-01 4.5723485946655273e-01</leafValues></_>
        <_>
          <internalNodes>
            0 -1 86 1.9892519339919090e-03</internalNodes>
          <leafValues>
            -2.5175014138221741e-01 5.8782994747161865e-01</leafValues></_>
        <_>
          <internalNodes>
            0 -1 91 8.7809562683105469e-04</internalNodes>
          <leafValues>
            -2.7478736639022827e-01 4.9390906095504761e-01</leafValues></_>
        <_>
          <internalNodes>
            0 -1 73 -8.6561782518401742e-04</internalNodes>
          <leafValues>
            -4.8031678795814514e-01 2.9872682690620422e-01</leafValues></_>
        <_>
          <internalNodes>
            0 -1 36 -7.0184781216084957e-03</internalNodes>
          <leafValues>
            5.7971471548080444e-01 -2.2068178653717041e-01</leafValues></_></weakClassifiers></_>
    <!-- stage 10 -->
    <_>
      <maxWeakCount>12</maxWeakCount>
      <stageThreshold>-1.5993851423263550e+00</stageThreshold>
      <weakClassifiers>
        <_>
          <internalNodes>
            0 -1 174 -1.5443569049239159e-02</internalNodes>
          <leafValues>
            3.9799845218658447e-01 -5.3606790304183960e-01</leafValues></_>
        <_>
          <internalNodes>
            0 -1 58 8.8458769023418427e-03</internalNodes>
          <leafValues>
            1.2054333090782166e-01 -8.3149516582489014e-01</leafValues></_>
        <_>
          <internalNodes>
            0 -1 40 -8.2889683544635773e-03</internalNodes>
          <leafValues>
            4.2206755280494690e-01 -3.3031848073005676e-01</leafValues></_>
        <_>
          <internalNodes>
            0 -1 46 -1.9345488399267197e-02</internalNodes>
          <leafValues>
            -8.1752830743789673e-01 1.6654032468795776e-01</leafValues></_>
        <_>
          <internalNodes>
            0 -1 136 8.8741228682920337e-04</internalNodes>
          <leafValues>
            -2.6147767901420593e-01 5.1024705171585083e-01</leafValues></_>
        <_>
          <internalNodes>
            0 -1 127 9.1391790192574263e-04</internalNodes>
          <leafValues>
            -3.3633309602737427e-01 5.1494586467742920e-01</leafValues></_>
        <_>
          <internalNodes>
            0 -1 143 -4.0183292003348470e-04</internalNodes>
          <leafValues>
            -7.1258229017257690e-01 2.2111880779266357e-01</leafValues></_>
        <_>
          <internalNodes>
            0 -1 180 -8.5467786993831396e-04</internalNodes>
          <leafValues>
            -7.0734584331512451e-01 1.5028727054595947e-01</leafValues></_>
        <_>
          <internalNodes>
            0 -1 121 7.2410830762237310e-04</internalNodes>
          <leafValues>
            -2.8371801972389221e-01 4.5245608687400818e-01</leafValues></_>
        <_>
          <internalNodes>
            0 -1 90 -3.6348792491480708e-04</internalNodes>
          <leafValues>
            -7.8398233652114868e-01 1.5911562740802765e-01</leafValues></_>
        <_>
          <internalNodes>
            0 -1 152 -1.3072956335236086e-06</internalNodes>
          <leafValues>
            4.7351941466331482e-01 -2.6440894603729248e-01</leafValues></_>
        <_>
          <internalNodes>
            0 -1 152 1.1918418749701232e-06</internalNodes>
          <leafValues>
            -2.9487532377243042e-01 5.1070469617843628e-01</leafValues></_></weakClassifiers></_>
    <!-- stage 11 -->
    <_>
      <maxWeakCount>12</maxWeakCount>
      <stageThreshold>-1.3796472549438477e+00</stageThreshold>
      <weakClassifiers>
        <_>
          <internalNodes>
            0 -1 8 1.3483250513672829e-02</internalNodes>
          <leafValues>
            -4.8204666376113892e-01 3.8087248802185059e-01</leafValues></_>
        <_>
          <internalNodes>
            0 -1 80 -8.9724088320508599e-04</internalNodes>
          <leafValues>
            4.4582113623619080e-01 -3.2979363203048706e-01</leafValues></_>
        <_>
          <internalNodes>
            0 -1 138 -1.9955258816480637e-02</internalNodes>
          <leafValues>
            5.0299280881881714e-01 -2.7788326144218445e-01</leafValues></_>
        <_>
          <internalNodes>
            0 -1 122 2.2509321570396423e-03</internalNodes>
          <leafValues>
            -2.3685914278030396e-01 6.2923604249954224e-01</leafValues></_>
        <_>
          <internalNodes>
            0 -1 94 -1.1840474326163530e-03</internalNodes>
          <leafValues>
            -7.7825915813446045e-01 1.9702179729938507e-01</leafValues></_>
        <_>
          <internalNodes>
            0 -1 31 4.0079718455672264e-03</internalNodes>
          <leafValues>
            -3.2641008496284485e-01 4.9222216010093689e-01</leafValues></_>
        <_>
          <internalNodes>
            0 -1 51 1.5403260476887226e-03</internalNodes>
          <leafValues>
            -2.6443091034889221e-01 4.7237467765808105e-01</leafValues></_>
        <_>
          <internalNodes>
            0 -1 109 6.2534492462873459e-03</internalNodes>
          <leafValues>
            2.1544902026653290e-01 -6.3685011863708496e-01</leafValues></_>
        <_>
          <internalNodes>
            0 -1 9 3.6727194674313068e-04</internalNodes>
          <leafValues>
            1.1672148853540421e-01 -7.3167216777801514e-01</leafValues></_>
        <_>
          <internalNodes>
            0 -1 53 6.6427921410650015e-04</internalNodes>
          <leafValues>
            -3.0398204922676086e-01 4.0592747926712036e-01</leafValues></_>
        <_>
          <internalNodes>
            0 -1 158 1.6135712212417275e-04</internalNodes>
          <leafValues>
            1.4475415647029877e-01 -8.8525629043579102e-01</leafValues></_>
        <_>
          <internalNodes>
            0 -1 63 6.1662471853196621e-04</internalNodes>
          <leafValues>
            -3.2132363319396973e-01 3.9789199829101562e-01</leafValues></_></weakClassifiers></_>
    <!-- stage 12 -->
    <_>
      <maxWeakCount>12</maxWeakCount>
      <stageThreshold>-1.4299070835113525e+00</stageThreshold>
      <weakClassifiers>
        <_>
          <internalNodes>
            0 -1 26 -2.7613608166575432e-02</internalNodes>
          <leafValues>
            3.4953537583351135e-01 -5.4873824119567871e-01</leafValues></_>
        <_>
          <internalNodes>
            0 -1 167 -6.9331247359514236e-03</internalNodes>
          <leafValues>
            3.8891986012458801e-01 -3.2535585761070251e-01</leafValues></_>
        <_>
          <internalNodes>
            0 -1 126 3.2872657757252455e-03</internalNodes>
          <leafValues>
            -2.3594057559967041e-01 5.0307983160018921e-01</leafValues></_>
        <_>
          <internalNodes>
            0 -1 96 8.8491346687078476e-03</internalNodes>
          <leafValues>
            1.1400064080953598e-01 -8.3811360597610474e-01</leafValues></_>
        <_>
          <internalNodes>
            0 -1 18 -5.6373566389083862e-02</internalNodes>
          <leafValues>
            6.1289244890213013e-01 -2.0967130362987518e-01</leafValues></_>
        <_>
          <internalNodes>
            0 -1 69 -2.0495355129241943e-03</internalNodes>
          <leafValues>
            5.4869031906127930e-01 -1.5621864795684814e-01</leafValues></_>
        <_>
          <internalNodes>
            0 -1 71 1.5814991202205420e-03</internalNodes>
          <leafValues>
            -3.3705559372901917e-01 4.8926082253456116e-01</leafValues></_>
        <_>
          <internalNodes>
            0 -1 106 -3.2033119350671768e-03</internalNodes>
          <leafValues>
            -7.3087066411972046e-01 1.9436447322368622e-01</leafValues></_>
        <_>
          <internalNodes>
            0 -1 44 5.3435824811458588e-03</internalNodes>
          <leafValues>
            -2.7451449632644653e-01 4.2315596342086792e-01</leafValues></_>
        <_>
          <internalNodes>
            0 -1 179 1.1261893814662471e-04</internalNodes>
          <leafValues>
            1.9401977956295013e-01 -6.0452818870544434e-01</leafValues></_>
        <_>
          <internalNodes>
            0 -1 142 -7.1911374107003212e-03</internalNodes>
          <leafValues>
            4.9489402770996094e-01 -2.2554920613765717e-01</leafValues></_>
        <_>
          <internalNodes>
            0 -1 130 -1.2827418913730071e-06</internalNodes>
          <leafValues>
            4.6502414345741272e-01 -2.6131004095077515e-01</leafValues></_></weakClassifiers></_>
    <!-- stage 13 -->
    <_>
      <maxWeakCount>10</maxWeakCount>
      <stageThreshold>-1.2965934276580811e+00</stageThreshold>
      <weakClassifiers>
        <_>
          <internalNodes>
            0 -1 6 1.0468224063515663e-02</internalNodes>
          <leafValues>
            -4.3015432357788086e-01 5.2295631170272827e-01</leafValues></_>
        <_>
          <internalNodes>
            0 -1 97 8.8064908050000668e-04</internalNodes>
          <leafValues>
            -2.9413035511970520e-01 4.7184243798255920e-01</leafValues></_>
        <_>
          <internalNodes>
            0 -1 145 9.8896783310920000e-04</internalNodes>
          <leafValues>
            -2.7066642045974731e-01 4.6167105436325073e-01</leafValues></_>
        <_>
          <internalNodes>
            0 -1 137 6.5228284802287817e-04</internalNodes>
          <leafValues>
            -2.9857638478279114e-01 5.1549714803695679e-01</leafValues></_>
        <_>
          <internalNodes>
            0 -1 155 2.9674298129975796e-03</internalNodes>
          <leafValues>
            -3.2515317201614380e-01 4.0609782934188843e-01</leafValues></_>
        <_>
          <internalNodes>
            0 -1 70 -1.4711166613778914e-06</internalNodes>
          <leafValues>
            3.5505810379981995e-01 -3.2734924554824829e-01</leafValues></_>
        <_>
          <internalNodes>
            0 -1 12 6.8351249210536480e-03</internalNodes>
          <leafValues>
            1.6390489041805267e-01 -7.3304963111877441e-01</leafValues></_>
        <_>
          <internalNodes>
            0 -1 82 1.3170523516237154e-06</internalNodes>
          <leafValues>
            -3.5788956284523010e-01 3.2291910052299500e-01</leafValues></_>
        <_>
          <internalNodes>
            0 -1 134 4.5287617831490934e-04</internalNodes>
          <leafValues>
            -2.6235342025756836e-01 4.0933120250701904e-01</leafValues></_>
        <_>
          <internalNodes>
            0 -1 125 4.9400870921090245e-04</internalNodes>
          <leafValues>
            -2.6835149526596069e-01 4.2496594786643982e-01</leafValues></_></weakClassifiers></_>
    <!-- stage 14 -->
    <_>
      <maxWeakCount>12</maxWeakCount>
      <stageThreshold>-1.3445944786071777e+00</stageThreshold>
      <weakClassifiers>
        <_>
          <internalNodes>
            0 -1 14 -5.4889403283596039e-02</internalNodes>
          <leafValues>
            2.9511165618896484e-01 -6.2904143333435059e-01</leafValues></_>
        <_>
          <internalNodes>
            0 -1 3 -3.7898527807556093e-04</internalNodes>
          <leafValues>
            -7.0761263370513916e-01 2.0041039586067200e-01</leafValues></_>
        <_>
          <internalNodes>
            0 -1 74 6.0589390341192484e-04</internalNodes>
          <leafValues>
            -3.2924637198448181e-01 4.0030273795127869e-01</leafValues></_>
        <_>
          <internalNodes>
            0 -1 43 1.0512171313166618e-02</internalNodes>
          <leafValues>
            -3.3936801552772522e-01 3.4241077303886414e-01</leafValues></_>
        <_>
          <internalNodes>
            0 -1 57 -5.7088548783212900e-04</internalNodes>
          <leafValues>
            -7.2922939062118530e-01 1.9293625652790070e-01</leafValues></_>
        <_>
          <internalNodes>
            0 -1 171 1.1905871331691742e-02</internalNodes>
          <leafValues>
            -2.1226115524768829e-01 5.8992928266525269e-01</leafValues></_>
        <_>
          <internalNodes>
            0 -1 117 1.2924917973577976e-02</internalNodes>
          <leafValues>
            1.2365768104791641e-01 -8.3245742321014404e-01</leafValues></_>
        <_>
          <internalNodes>
            0 -1 160 -1.1918418749701232e-06</internalNodes>
          <leafValues>
            3.1081107258796692e-01 -3.3991888165473938e-01</leafValues></_>
        <_>
          <internalNodes>
            0 -1 24 4.2116497643291950e-03</internalNodes>
          <leafValues>
            -2.8977403044700623e-01 3.6339309811592102e-01</leafValues></_>
        <_>
          <internalNodes>
            0 -1 2 -4.2548120021820068e-02</internalNodes>
          <leafValues>
            8.7006103992462158e-01 -1.5425522625446320e-01</leafValues></_>
        <_>
          <internalNodes>
            0 -1 166 5.4320163326337934e-04</internalNodes>
          <leafValues>
            -1.8523542582988739e-01 5.2735441923141479e-01</leafValues></_>
        <_>
          <internalNodes>
            0 -1 108 -3.1600031070411205e-04</internalNodes>
          <leafValues>
            -7.2003489732742310e-01 1.5976776182651520e-01</leafValues></_></weakClassifiers></_>
    <!-- stage 15 -->
    <_>
      <maxWeakCount>11</maxWeakCount>
      <stageThreshold>-1.2934335470199585e+00</stageThreshold>
      <weakClassifiers>
        <_>
          <internalNodes>
            0 -1 11 2.6908591389656067e-02</internalNodes>
          <leafValues>
            -6.1842817068099976e-01 3.3079364895820618e-01</leafValues></_>
        <_>
          <internalNodes>
            0 -1 42 5.8038718998432159e-04</internalNodes>
          <leafValues>
            1.6024662554264069e-01 -8.5749012231826782e-01</leafValues></_>
        <_>
          <internalNodes>
            0 -1 17 -2.6719748973846436e-02</internalNodes>
          <leafValues>
            4.9613189697265625e-01 -3.1752270460128784e-01</leafValues></_>
        <_>
          <internalNodes>
            0 -1 181 3.0044856248423457e-04</internalNodes>
          <leafValues>
            1.9896969199180603e-01 -7.3278915882110596e-01</leafValues></_>
        <_>
          <internalNodes>
            0 -1 61 8.6022121831774712e-04</internalNodes>
          <leafValues>
            -3.2847982645034790e-01 3.9825686812400818e-01</leafValues></_>
        <_>
          <internalNodes>
            0 -1 56 -1.8941182643175125e-03</internalNodes>
          <leafValues>
            5.8842301368713379e-01 -2.0312750339508057e-01</leafValues></_>
        <_>
          <internalNodes>
            0 -1 1 -2.5843273848295212e-02</internalNodes>
          <leafValues>
            6.4539444446563721e-01 -1.4954379200935364e-01</leafValues></_>
        <_>
          <internalNodes>
            0 -1 129 -2.4515034165233374e-03</internalNodes>
          <leafValues>
            -8.1818324327468872e-01 1.2366110831499100e-01</leafValues></_>
        <_>
          <internalNodes>
            0 -1 111 -1.4340378344058990e-02</internalNodes>
          <leafValues>
            4.6621441841125488e-01 -2.3656821250915527e-01</leafValues></_>
        <_>
          <internalNodes>
            0 -1 118 2.5874273851513863e-03</internalNodes>
          <leafValues>
            -2.5920182466506958e-01 5.3715026378631592e-01</leafValues></_>
        <_>
          <internalNodes>
            0 -1 161 -1.2793217365469900e-06</internalNodes>
          <leafValues>
            5.3597307205200195e-01 -1.6879092156887054e-01</leafValues></_></weakClassifiers></_>
    <!-- stage 16 -->
    <_>
      <maxWeakCount>10</maxWeakCount>
      <stageThreshold>-1.5561393499374390e+00</stageThreshold>
      <weakClassifiers>
        <_>
          <internalNodes>
            0 -1 100 -3.4945388324558735e-04</internalNodes>
          <leafValues>
            3.1379079818725586e-01 -5.6852525472640991e-01</leafValues></_>
        <_>
          <internalNodes>
            0 -1 177 -2.6290409732609987e-04</internalNodes>
          <leafValues>
            -6.9091856479644775e-01 2.0903065800666809e-01</leafValues></_>
        <_>
          <internalNodes>
            0 -1 165 -8.5684880614280701e-03</internalNodes>
          <leafValues>
            2.9876682162284851e-01 -3.9908000826835632e-01</leafValues></_>
        <_>
          <internalNodes>
            0 -1 92 4.3041007593274117e-03</internalNodes>
          <leafValues>
            1.8806923925876617e-01 -8.3757102489471436e-01</leafValues></_>
        <_>
          <internalNodes>
            0 -1 78 2.4825092405080795e-03</internalNodes>
          <leafValues>
            -3.7419620156288147e-01 3.3795732259750366e-01</leafValues></_>
        <_>
          <internalNodes>
            0 -1 162 4.1729782242327929e-04</internalNodes>
          <leafValues>
            -2.0745171606540680e-01 5.6695157289505005e-01</leafValues></_>
        <_>
          <internalNodes>
            0 -1 157 1.8373172497376800e-04</internalNodes>
          <leafValues>
            -3.0784830451011658e-01 4.7740203142166138e-01</leafValues></_>
        <_>
          <internalNodes>
            0 -1 4 9.3078743666410446e-03</internalNodes>
          <leafValues>
            1.9137237966060638e-01 -6.8760257959365845e-01</leafValues></_>
        <_>
          <internalNodes>
            0 -1 67 3.9453411591239274e-04</internalNodes>
          <leafValues>
            1.4999754726886749e-01 -6.2105345726013184e-01</leafValues></_>
        <_>
          <internalNodes>
            0 -1 153 1.2827418913730071e-06</internalNodes>
          <leafValues>
            -2.5637951493263245e-01 4.1865229606628418e-01</leafValues></_></weakClassifiers></_>
    <!-- stage 17 -->
    <_>
      <maxWeakCount>9</maxWeakCount>
      <stageThreshold>-1.2342820167541504e+00</stageThreshold>
      <weakClassifiers>
        <_>
          <internalNodes>
            0 -1 21 1.7218774883076549e-04</internalNodes>
          <leafValues>
            -7.1302706003189087e-01 2.8017476201057434e-01</leafValues></_>
        <_>
          <internalNodes>
            0 -1 87 -1.4185044914484024e-02</internalNodes>
          <leafValues>
            -8.2314360141754150e-01 1.5115197002887726e-01</leafValues></_>
        <_>
          <internalNodes>
            0 -1 172 1.0860480368137360e-02</internalNodes>
          <leafValues>
            -2.8205230832099915e-01 5.0171101093292236e-01</leafValues></_>
        <_>
          <internalNodes>
            0 -1 141 2.1609666873700917e-04</internalNodes>
          <leafValues>
            1.5408174693584442e-01 -8.0856341123580933e-01</leafValues></_>
        <_>
          <internalNodes>
            0 -1 113 1.2101227184757590e-06</internalNodes>
          <leafValues>
            -1.8319228291511536e-01 5.9115803241729736e-01</leafValues></_>
        <_>
          <internalNodes>
            0 -1 113 -1.3170523516237154e-06</internalNodes>
          <leafValues>
            5.7424622774124146e-01 -2.7111148834228516e-01</leafValues></_>
        <_>
          <internalNodes>
            0 -1 45 -3.6023196298629045e-04</internalNodes>
          <leafValues>
            -6.9452279806137085e-01 1.9418774545192719e-01</leafValues></_>
        <_>
          <internalNodes>
            0 -1 123 1.2287733852645033e-06</internalNodes>
          <leafValues>
            -2.7026745676994324e-01 4.6355733275413513e-01</leafValues></_>
        <_>
          <internalNodes>
            0 -1 132 -5.5320787942036986e-04</internalNodes>
          <leafValues>
            -8.4544074535369873e-01 1.4083285629749298e-01</leafValues></_></weakClassifiers></_>
    <!-- stage 18 -->
    <_>
      <maxWeakCount>3</maxWeakCount>
      <stageThreshold>-1.2515920400619507e+00</stageThreshold>
      <weakClassifiers>
        <_>
          <internalNodes>
            0 -1 28 1.0246775299310684e-01</internalNodes>
          <leafValues>
            2.2222222387790680e-01 -9.5726495981216431e-01</leafValues></_>
        <_>
          <internalNodes>
            0 -1 173 -3.5473853349685669e-03</internalNodes>
          <leafValues>
            4.2392641305923462e-01 -4.8164382576942444e-01</leafValues></_>
        <_>
          <internalNodes>
            0 -1 54 4.2087666224688292e-04</internalNodes>
          <leafValues>
            1.8731673061847687e-01 -8.3172196149826050e-01</leafValues></_></weakClassifiers></_>
    <!-- stage 19 -->
    <_>
      <maxWeakCount>5</maxWeakCount>
      <stageThreshold>-1.2580381631851196e+00</stageThreshold>
      <weakClassifiers>
        <_>
          <internalNodes>
            0 -1 102 -2.4749420583248138e-02</internalNodes>
          <leafValues>
            -9.0972763299942017e-01 2.5714287161827087e-01</leafValues></_>
        <_>
          <internalNodes>
            0 -1 175 -2.3052846081554890e-03</internalNodes>
          <leafValues>
            4.1466459631919861e-01 -5.0730931758880615e-01</leafValues></_>
        <_>
          <internalNodes>
            0 -1 79 1.3001363258808851e-03</internalNodes>
          <leafValues>
            1.9894538819789886e-01 -7.3093771934509277e-01</leafValues></_>
        <_>
          <internalNodes>
            0 -1 38 3.7273075431585312e-03</internalNodes>
          <leafValues>
            -2.4967397749423981e-01 5.6360965967178345e-01</leafValues></_>
        <_>
          <internalNodes>
            0 -1 156 -5.3096655756235123e-04</internalNodes>
          <leafValues>
            -7.6531308889389038e-01 2.0972734689712524e-01</leafValues></_></weakClassifiers></_></stages>
  <features>
    <_>
      <rects>
        <_>
          0 0 39 2 -1.</_>
        <_>
          13 0 13 2 3.</_></rects>
      <tilted>0</tilted></_>
    <_>
      <rects>
        <_>
          0 0 119 6 -1.</_>
        <_>
          0 3 119 3 2.</_></rects>
      <tilted>0</tilted></_>
    <_>
      <rects>
        <_>
          0 7 30 24 -1.</_>
        <_>
          15 7 15 24 2.</_></rects>
      <tilted>0</tilted></_>
    <_>
      <rects>
        <_>
          0 14 8 8 -1.</_>
        <_>
          0 16 8 4 2.</_></rects>
      <tilted>0</tilted></_>
    <_>
      <rects>
        <_>
          0 16 8 24 -1.</_>
        <_>
          0 28 8 12 2.</_></rects>
      <tilted>0</tilted></_>
    <_>
      <rects>
        <_>
          0 18 5 6 -1.</_>
        <_>
          0 20 5 2 3.</_></rects>
      <tilted>0</tilted></_>
    <_>
      <rects>
        <_>
          0 21 16 9 -1.</_>
        <_>
          8 21 8 9 2.</_></rects>
      <tilted>0</tilted></_>
    <_>
      <rects>
        <_>
          0 26 120 14 -1.</_>
        <_>
          0 33 120 7 2.</_></rects>
      <tilted>0</tilted></_>
    <_>
      <rects>
        <_>
          1 11 16 17 -1.</_>
        <_>
          9 11 8 17 2.</_></rects>
      <tilted>0</tilted></_>
    <_>
      <rects>
        <_>
          1 17 5 6 -1.</_>
        <_>
          1 19 5 2 3.</_></rects>
      <tilted>0</tilted></_>
    <_>
      <rects>
        <_>
          3 0 71 10 -1.</_>
        <_>
          3 5 71 5 2.</_></rects>
      <tilted>0</tilted></_>
    <_>
      <rects>
        <_>
          3 1 22 31 -1.</_>
        <_>
          14 1 11 31 2.</_></rects>
      <tilted>0</tilted></_>
    <_>
      <rects>
        <_>
          3 5 6 21 -1.</_>
        <_>
          3 12 6 7 3.</_></rects>
      <tilted>0</tilted></_>
    <_>
      <rects>
        <_>
          3 10 20 26 -1.</_>
        <_>
          13 10 10 26 2.</_></rects>
      <tilted>0</tilted></_>
    <_>
      <rects>
        <_>
          3 12 117 28 -1.</_>
        <_>
          3 26 117 14 2.</_></rects>
      <tilted>0</tilted></_>
    <_>
      <rects>
        <_>
          3 23 64 12 -1.</_>
        <_>
          19 23 32 12 2.</_></rects>
      <tilted>0</tilted></_>
    <_>
      <rects>
        <_>
          4 21 18 11 -1.</_>
        <_>
          13 21 9 11 2.</_></rects>
      <tilted>0</tilted></_>
    <_>
      <rects>
        <_>
          4 32 68 8 -1.</_>
        <_>
          4 36 68 4 2.</_></rects>
      <tilted>0</tilted></_>
    <_>
      <rects>
        <_>
          5 0 91 12 -1.</_>
        <_>
          5 4 91 4 3.</_></rects>
      <tilted>0</tilted></_>
    <_>
      <rects>
        <_>
          6 34 75 6 -1.</_>
        <_>
          6 37 75 3 2.</_></rects>
      <tilted>0</tilted></_>
    <_>
      <rects>
        <_>
          7 0 109 40 -1.</_>
        <_>
          7 10 109 20 2.</_></rects>
      <tilted>0</tilted></_>
    <_>
      <rects>
        <_>
          7 7 17 12 -1.</_>
        <_>
          7 13 17 6 2.</_></rects>
      <tilted>0</tilted></_>
    <_>
      <rects>
        <_>
          7 11 16 20 -1.</_>
        <_>
          15 11 8 20 2.</_></rects>
      <tilted>0</tilted></_>
    <_>
      <rects>
        <_>
          7 12 14 21 -1.</_>
        <_>
          14 12 7 21 2.</_></rects>
      <tilted>0</tilted></_>
    <_>
      <rects>
        <_>
          9 16 12 8 -1.</_>
        <_>
          15 16 6 8 2.</_></rects>
      <tilted>0</tilted></_>
    <_>
      <rects>
        <_>
          9 24 71 16 -1.</_>
        <_>
          9 28 71 8 2.</_></rects>
      <tilted>0</tilted></_>
    <_>
      <rects>
        <_>
          9 28 43 12 -1.</_>
        <_>
          9 34 43 6 2.</_></rects>
      <tilted>0</tilted></_>
    <_>
      <rects>
        <_>
          10 26 86 14 -1.</_>
        <_>
          10 33 86 7 2.</_></rects>
      <tilted>0</tilted></_>
    <_>
      <rects>
        <_>
          11 2 81 29 -1.</_>
        <_>
          38 2 27 29 3.</_></rects>
      <tilted>0</tilted></_>
    <_>
      <rects>
        <_>
          11 14 10 5 -1.</_>
        <_>
          16 14 5 5 2.</_></rects>
      <tilted>0</tilted></_>
    <_>
      <rects>
        <_>
          12 0 75 8 -1.</_>
        <_>
          12 4 75 4 2.</_></rects>
      <tilted>0</tilted></_>
    <_>
      <rects>
        <_>
          13 17 10 12 -1.</_>
        <_>
          18 17 5 12 2.</_></rects>
      <tilted>0</tilted></_>
    <_>
      <rects>
        <_>
          13 26 93 14 -1.</_>
        <_>
          13 33 93 7 2.</_></rects>
      <tilted>0</tilted></_>
    <_>
      <rects>
        <_>
          13 30 98 10 -1.</_>
        <_>
          13 35 98 5 2.</_></rects>
      <tilted>0</tilted></_>
    <_>
      <rects>
        <_>
          14 0 6 1 -1.</_>
        <_>
          16 0 2 1 3.</_></rects>
      <tilted>0</tilted></_>
    <_>
      <rects>
        <_>
          15 0 4 2 -1.</_>
        <_>
          16 0 2 2 2.</_></rects>
      <tilted>0</tilted></_>
    <_>
      <rects>
        <_>
          15 0 43 8 -1.</_>
        <_>
          15 2 43 4 2.</_></rects>
      <tilted>0</tilted></_>
    <_>
      <rects>
        <_>
          15 15 42 15 -1.</_>
        <_>
          29 15 14 15 3.</_></rects>
      <tilted>0</tilted></_>
    <_>
      <rects>
        <_>
          17 14 8 19 -1.</_>
        <_>
          19 14 4 19 2.</_></rects>
      <tilted>0</tilted></_>
    <_>
      <rects>
        <_>
          17 14 10 16 -1.</_>
        <_>
          17 14 10 8 2.</_></rects>
      <tilted>1</tilted></_>
    <_>
      <rects>
        <_>
          17 16 36 12 -1.</_>
        <_>
          26 16 18 12 2.</_></rects>
      <tilted>0</tilted></_>
    <_>
      <rects>
        <_>
          18 0 59 12 -1.</_>
        <_>
          18 3 59 6 2.</_></rects>
      <tilted>0</tilted></_>
    <_>
      <rects>
        <_>
          18 2 12 3 -1.</_>
        <_>
          22 2 4 3 3.</_></rects>
      <tilted>0</tilted></_>
    <_>
      <rects>
        <_>
          18 5 35 16 -1.</_>
        <_>
          18 9 35 8 2.</_></rects>
      <tilted>0</tilted></_>
    <_>
      <rects>
        <_>
          19 12 50 6 -1.</_>
        <_>
          19 14 50 2 3.</_></rects>
      <tilted>0</tilted></_>
    <_>
      <rects>
        <_>
          20 0 12 4 -1.</_>
        <_>
          23 0 6 4 2.</_></rects>
      <tilted>0</tilted></_>
    <_>
      <rects>
        <_>
          20 4 54 13 -1.</_>
        <_>
          38 4 18 13 3.</_></rects>
      <tilted>0</tilted></_>
    <_>
      <rects>
        <_>
          20 19 6 7 -1.</_>
        <_>
          22 19 2 7 3.</_></rects>
      <tilted>0</tilted></_>
    <_>
      <rects>
        <_>
          20 28 60 12 -1.</_>
        <_>
          35 28 30 12 2.</_></rects>
      <tilted>0</tilted></_>
    <_>
      <rects>
        <_>
          21 1 2 2 -1.</_>
        <_>
          21 2 2 1 2.</_></rects>
      <tilted>0</tilted></_>
    <_>
      <rects>
        <_>
          21 11 2 2 -1.</_>
        <_>
          21 12 2 1 2.</_></rects>
      <tilted>0</tilted></_>
    <_>
      <rects>
        <_>
          21 14 6 18 -1.</_>
        <_>
          23 14 2 18 3.</_></rects>
      <tilted>0</tilted></_>
    <_>
      <rects>
        <_>
          24 14 6 12 -1.</_>
        <_>
          26 14 2 12 3.</_></rects>
      <tilted>0</tilted></_>
    <_>
      <rects>
        <_>
          24 18 6 9 -1.</_>
        <_>
          26 18 2 9 3.</_></rects>
      <tilted>0</tilted></_>
    <_>
      <rects>
        <_>
          25 1 12 3 -1.</_>
        <_>
          28 1 6 3 2.</_></rects>
      <tilted>0</tilted></_>
    <_>
      <rects>
        <_>
          25 3 36 8 -1.</_>
        <_>
          37 3 12 8 3.</_></rects>
      <tilted>0</tilted></_>
    <_>
      <rects>
        <_>
          25 17 8 7 -1.</_>
        <_>
          27 17 4 7 2.</_></rects>
      <tilted>0</tilted></_>
    <_>
      <rects>
        <_>
          26 0 12 4 -1.</_>
        <_>
          30 0 4 4 3.</_></rects>
      <tilted>0</tilted></_>
    <_>
      <rects>
        <_>
          26 4 52 9 -1.</_>
        <_>
          39 4 26 9 2.</_></rects>
      <tilted>0</tilted></_>
    <_>
      <rects>
        <_>
          26 4 23 16 -1.</_>
        <_>
          26 8 23 8 2.</_></rects>
      <tilted>0</tilted></_>
    <_>
      <rects>
        <_>
          26 15 8 17 -1.</_>
        <_>
          28 15 4 17 2.</_></rects>
      <tilted>0</tilted></_>
    <_>
      <rects>
        <_>
          26 17 6 8 -1.</_>
        <_>
          28 17 2 8 3.</_></rects>
      <tilted>0</tilted></_>
    <_>
      <rects>
        <_>
          27 14 6 14 -1.</_>
        <_>
          29 14 2 14 3.</_></rects>
      <tilted>0</tilted></_>
    <_>
      <rects>
        <_>
          27 16 6 9 -1.</_>
        <_>
          29 16 2 9 3.</_></rects>
      <tilted>0</tilted></_>
    <_>
      <rects>
        <_>
          27 17 6 10 -1.</_>
        <_>
          29 17 2 10 3.</_></rects>
      <tilted>0</tilted></_>
    <_>
      <rects>
        <_>
          27 38 18 2 -1.</_>
        <_>
          33 38 6 2 3.</_></rects>
      <tilted>0</tilted></_>
    <_>
      <rects>
        <_>
          28 0 3 7 -1.</_>
        <_>
          29 0 1 7 3.</_></rects>
      <tilted>0</tilted></_>
    <_>
      <rects>
        <_>
          28 0 12 5 -1.</_>
        <_>
          32 0 4 5 3.</_></rects>
      <tilted>0</tilted></_>
    <_>
      <rects>
        <_>
          28 17 8 10 -1.</_>
        <_>
          30 17 4 10 2.</_></rects>
      <tilted>0</tilted></_>
    <_>
      <rects>
        <_>
          28 18 8 8 -1.</_>
        <_>
          30 18 4 8 2.</_></rects>
      <tilted>0</tilted></_>
    <_>
      <rects>
        <_>
          29 0 4 2 -1.</_>
        <_>
          29 1 4 1 2.</_></rects>
      <tilted>0</tilted></_>
    <_>
      <rects>
        <_>
          29 16 6 15 -1.</_>
        <_>
          31 16 2 15 3.</_></rects>
      <tilted>0</tilted></_>
    <_>
      <rects>
        <_>
          29 17 6 7 -1.</_>
        <_>
          31 17 2 7 3.</_></rects>
      <tilted>0</tilted></_>
    <_>
      <rects>
        <_>
          29 18 30 17 -1.</_>
        <_>
          44 18 15 17 2.</_></rects>
      <tilted>0</tilted></_>
    <_>
      <rects>
        <_>
          29 25 19 4 -1.</_>
        <_>
          29 27 19 2 2.</_></rects>
      <tilted>0</tilted></_>
    <_>
      <rects>
        <_>
          30 1 72 20 -1.</_>
        <_>
          54 1 24 20 3.</_></rects>
      <tilted>0</tilted></_>
    <_>
      <rects>
        <_>
          30 15 6 16 -1.</_>
        <_>
          32 15 2 16 3.</_></rects>
      <tilted>0</tilted></_>
    <_>
      <rects>
        <_>
          32 0 47 12 -1.</_>
        <_>
          32 3 47 6 2.</_></rects>
      <tilted>0</tilted></_>
    <_>
      <rects>
        <_>
          32 22 46 8 -1.</_>
        <_>
          32 26 46 4 2.</_></rects>
      <tilted>0</tilted></_>
    <_>
      <rects>
        <_>
          33 1 16 10 -1.</_>
        <_>
          37 1 8 10 2.</_></rects>
      <tilted>0</tilted></_>
    <_>
      <rects>
        <_>
          33 14 9 6 -1.</_>
        <_>
          33 17 9 3 2.</_></rects>
      <tilted>0</tilted></_>
    <_>
      <rects>
        <_>
          33 15 6 15 -1.</_>
        <_>
          35 15 2 15 3.</_></rects>
      <tilted>0</tilted></_>
    <_>
      <rects>
        <_>
          35 7 3 2 -1.</_>
        <_>
          35 8 3 1 2.</_></rects>
      <tilted>0</tilted></_>
    <_>
      <rects>
        <_>
          35 38 18 2 -1.</_>
        <_>
          41 38 6 2 3.</_></rects>
      <tilted>0</tilted></_>
    <_>
      <rects>
        <_>
          36 0 78 40 -1.</_>
        <_>
          36 10 78 20 2.</_></rects>
      <tilted>0</tilted></_>
    <_>
      <rects>
        <_>
          36 8 1 2 -1.</_>
        <_>
          36 9 1 1 2.</_></rects>
      <tilted>0</tilted></_>
    <_>
      <rects>
        <_>
          37 17 6 10 -1.</_>
        <_>
          39 17 2 10 3.</_></rects>
      <tilted>0</tilted></_>
    <_>
      <rects>
        <_>
          37 18 37 12 -1.</_>
        <_>
          37 24 37 6 2.</_></rects>
      <tilted>0</tilted></_>
    <_>
      <rects>
        <_>
          37 26 52 14 -1.</_>
        <_>
          50 26 26 14 2.</_></rects>
      <tilted>0</tilted></_>
    <_>
      <rects>
        <_>
          37 28 83 12 -1.</_>
        <_>
          37 34 83 6 2.</_></rects>
      <tilted>0</tilted></_>
    <_>
      <rects>
        <_>
          39 0 9 4 -1.</_>
        <_>
          42 0 3 4 3.</_></rects>
      <tilted>0</tilted></_>
    <_>
      <rects>
        <_>
          40 20 6 9 -1.</_>
        <_>
          42 20 2 9 3.</_></rects>
      <tilted>0</tilted></_>
    <_>
      <rects>
        <_>
          41 4 27 7 -1.</_>
        <_>
          50 4 9 7 3.</_></rects>
      <tilted>0</tilted></_>
    <_>
      <rects>
        <_>
          41 26 36 14 -1.</_>
        <_>
          59 26 18 14 2.</_></rects>
      <tilted>0</tilted></_>
    <_>
      <rects>
        <_>
          41 37 18 3 -1.</_>
        <_>
          47 37 6 3 3.</_></rects>
      <tilted>0</tilted></_>
    <_>
      <rects>
        <_>
          42 0 69 40 -1.</_>
        <_>
          42 10 69 20 2.</_></rects>
      <tilted>0</tilted></_>
    <_>
      <rects>
        <_>
          42 3 33 12 -1.</_>
        <_>
          53 3 11 12 3.</_></rects>
      <tilted>0</tilted></_>
    <_>
      <rects>
        <_>
          42 24 12 3 -1.</_>
        <_>
          46 24 4 3 3.</_></rects>
      <tilted>0</tilted></_>
    <_>
      <rects>
        <_>
          42 28 41 8 -1.</_>
        <_>
          42 30 41 4 2.</_></rects>
      <tilted>0</tilted></_>
    <_>
      <rects>
        <_>
          42 34 2 4 -1.</_>
        <_>
          43 34 1 4 2.</_></rects>
      <tilted>0</tilted></_>
    <_>
      <rects>
        <_>
          43 7 6 2 -1.</_>
        <_>
          43 7 3 2 2.</_></rects>
      <tilted>1</tilted></_>
    <_>
      <rects>
        <_>
          43 12 9 6 -1.</_>
        <_>
          46 14 3 2 9.</_></rects>
      <tilted>0</tilted></_>
    <_>
      <rects>
        <_>
          44 1 11 24 -1.</_>
        <_>
          38 7 11 12 2.</_></rects>
      <tilted>1</tilted></_>
    <_>
      <rects>
        <_>
          45 14 12 13 -1.</_>
        <_>
          49 14 4 13 3.</_></rects>
      <tilted>0</tilted></_>
    <_>
      <rects>
        <_>
          45 21 12 5 -1.</_>
        <_>
          49 21 4 5 3.</_></rects>
      <tilted>0</tilted></_>
    <_>
      <rects>
        <_>
          46 2 18 8 -1.</_>
        <_>
          52 2 6 8 3.</_></rects>
      <tilted>0</tilted></_>
    <_>
      <rects>
        <_>
          46 2 24 7 -1.</_>
        <_>
          54 2 8 7 3.</_></rects>
      <tilted>0</tilted></_>
    <_>
      <rects>
        <_>
          46 5 6 1 -1.</_>
        <_>
          48 5 2 1 3.</_></rects>
      <tilted>0</tilted></_>
    <_>
      <rects>
        <_>
          48 0 8 7 -1.</_>
        <_>
          50 0 4 7 2.</_></rects>
      <tilted>0</tilted></_>
    <_>
      <rects>
        <_>
          48 0 48 11 -1.</_>
        <_>
          60 0 24 11 2.</_></rects>
      <tilted>0</tilted></_>
    <_>
      <rects>
        <_>
          48 17 9 8 -1.</_>
        <_>
          51 17 3 8 3.</_></rects>
      <tilted>0</tilted></_>
    <_>
      <rects>
        <_>
          48 27 28 8 -1.</_>
        <_>
          48 31 28 4 2.</_></rects>
      <tilted>0</tilted></_>
    <_>
      <rects>
        <_>
          49 2 12 5 -1.</_>
        <_>
          53 2 4 5 3.</_></rects>
      <tilted>0</tilted></_>
    <_>
      <rects>
        <_>
          50 3 2 2 -1.</_>
        <_>
          50 3 1 1 2.</_>
        <_>
          51 4 1 1 2.</_></rects>
      <tilted>0</tilted></_>
    <_>
      <rects>
        <_>
          50 8 21 6 -1.</_>
        <_>
          50 10 21 2 3.</_></rects>
      <tilted>0</tilted></_>
    <_>
      <rects>
        <_>
          51 2 2 5 -1.</_>
        <_>
          52 2 1 5 2.</_></rects>
      <tilted>0</tilted></_>
    <_>
      <rects>
        <_>
          51 28 2 12 -1.</_>
        <_>
          51 34 2 6 2.</_></rects>
      <tilted>0</tilted></_>
    <_>
      <rects>
        <_>
          51 29 36 11 -1.</_>
        <_>
          63 29 12 11 3.</_></rects>
      <tilted>0</tilted></_>
    <_>
      <rects>
        <_>
          53 29 31 4 -1.</_>
        <_>
          53 31 31 2 2.</_></rects>
      <tilted>0</tilted></_>
    <_>
      <rects>
        <_>
          54 21 6 4 -1.</_>
        <_>
          56 21 2 4 3.</_></rects>
      <tilted>0</tilted></_>
    <_>
      <rects>
        <_>
          57 19 6 5 -1.</_>
        <_>
          59 19 2 5 3.</_></rects>
      <tilted>0</tilted></_>
    <_>
      <rects>
        <_>
          58 19 6 5 -1.</_>
        <_>
          60 19 2 5 3.</_></rects>
      <tilted>0</tilted></_>
    <_>
      <rects>
        <_>
          59 30 18 4 -1.</_>
        <_>
          59 32 18 2 2.</_></rects>
      <tilted>0</tilted></_>
    <_>
      <rects>
        <_>
          60 6 2 2 -1.</_>
        <_>
          60 6 1 1 2.</_>
        <_>
          61 7 1 1 2.</_></rects>
      <tilted>0</tilted></_>
    <_>
      <rects>
        <_>
          60 18 6 5 -1.</_>
        <_>
          62 18 2 5 3.</_></rects>
      <tilted>0</tilted></_>
    <_>
      <rects>
        <_>
          60 21 6 5 -1.</_>
        <_>
          62 21 2 5 3.</_></rects>
      <tilted>0</tilted></_>
    <_>
      <rects>
        <_>
          61 8 6 18 -1.</_>
        <_>
          63 10 2 18 3.</_></rects>
      <tilted>1</tilted></_>
    <_>
      <rects>
        <_>
          61 17 6 7 -1.</_>
        <_>
          63 17 2 7 3.</_></rects>
      <tilted>0</tilted></_>
    <_>
      <rects>
        <_>
          61 31 24 4 -1.</_>
        <_>
          61 33 24 2 2.</_></rects>
      <tilted>0</tilted></_>
    <_>
      <rects>
        <_>
          62 1 21 6 -1.</_>
        <_>
          69 1 7 6 3.</_></rects>
      <tilted>0</tilted></_>
    <_>
      <rects>
        <_>
          62 8 2 2 -1.</_>
        <_>
          62 8 1 1 2.</_>
        <_>
          63 9 1 1 2.</_></rects>
      <tilted>0</tilted></_>
    <_>
      <rects>
        <_>
          63 4 12 2 -1.</_>
        <_>
          66 4 6 2 2.</_></rects>
      <tilted>0</tilted></_>
    <_>
      <rects>
        <_>
          63 4 12 4 -1.</_>
        <_>
          66 4 6 4 2.</_></rects>
      <tilted>0</tilted></_>
    <_>
      <rects>
        <_>
          63 7 2 2 -1.</_>
        <_>
          63 7 1 1 2.</_>
        <_>
          64 8 1 1 2.</_></rects>
      <tilted>0</tilted></_>
    <_>
      <rects>
        <_>
          63 9 4 25 -1.</_>
        <_>
          64 9 2 25 2.</_></rects>
      <tilted>0</tilted></_>
    <_>
      <rects>
        <_>
          63 19 6 9 -1.</_>
        <_>
          65 19 2 9 3.</_></rects>
      <tilted>0</tilted></_>
    <_>
      <rects>
        <_>
          64 20 6 4 -1.</_>
        <_>
          66 20 2 4 3.</_></rects>
      <tilted>0</tilted></_>
    <_>
      <rects>
        <_>
          64 20 6 6 -1.</_>
        <_>
          66 20 2 6 3.</_></rects>
      <tilted>0</tilted></_>
    <_>
      <rects>
        <_>
          64 27 27 10 -1.</_>
        <_>
          64 32 27 5 2.</_></rects>
      <tilted>0</tilted></_>
    <_>
      <rects>
        <_>
          64 27 30 8 -1.</_>
        <_>
          64 29 30 4 2.</_></rects>
      <tilted>0</tilted></_>
    <_>
      <rects>
        <_>
          64 37 16 3 -1.</_>
        <_>
          68 37 8 3 2.</_></rects>
      <tilted>0</tilted></_>
    <_>
      <rects>
        <_>
          65 4 8 3 -1.</_>
        <_>
          67 4 4 3 2.</_></rects>
      <tilted>0</tilted></_>
    <_>
      <rects>
        <_>
          65 27 24 6 -1.</_>
        <_>
          65 30 24 3 2.</_></rects>
      <tilted>0</tilted></_>
    <_>
      <rects>
        <_>
          65 36 12 4 -1.</_>
        <_>
          68 36 6 4 2.</_></rects>
      <tilted>0</tilted></_>
    <_>
      <rects>
        <_>
          66 16 6 9 -1.</_>
        <_>
          68 16 2 9 3.</_></rects>
      <tilted>0</tilted></_>
    <_>
      <rects>
        <_>
          67 18 6 7 -1.</_>
        <_>
          69 18 2 7 3.</_></rects>
      <tilted>0</tilted></_>
    <_>
      <rects>
        <_>
          69 17 6 7 -1.</_>
        <_>
          71 17 2 7 3.</_></rects>
      <tilted>0</tilted></_>
    <_>
      <rects>
        <_>
          69 37 9 3 -1.</_>
        <_>
          72 37 3 3 3.</_></rects>
      <tilted>0</tilted></_>
    <_>
      <rects>
        <_>
          69 38 9 2 -1.</_>
        <_>
          72 38 3 2 3.</_></rects>
      <tilted>0</tilted></_>
    <_>
      <rects>
        <_>
          72 16 6 9 -1.</_>
        <_>
          74 16 2 9 3.</_></rects>
      <tilted>0</tilted></_>
    <_>
      <rects>
        <_>
          74 13 6 6 -1.</_>
        <_>
          76 15 2 2 9.</_></rects>
      <tilted>0</tilted></_>
    <_>
      <rects>
        <_>
          78 14 6 11 -1.</_>
        <_>
          80 14 2 11 3.</_></rects>
      <tilted>0</tilted></_>
    <_>
      <rects>
        <_>
          80 9 2 2 -1.</_>
        <_>
          80 9 1 1 2.</_>
        <_>
          81 10 1 1 2.</_></rects>
      <tilted>0</tilted></_>
    <_>
      <rects>
        <_>
          81 5 2 2 -1.</_>
        <_>
          82 5 1 2 2.</_></rects>
      <tilted>0</tilted></_>
    <_>
      <rects>
        <_>
          81 17 6 6 -1.</_>
        <_>
          83 17 2 6 3.</_></rects>
      <tilted>0</tilted></_>
    <_>
      <rects>
        <_>
          81 26 6 8 -1.</_>
        <_>
          81 26 3 8 2.</_></rects>
      <tilted>1</tilted></_>
    <_>
      <rects>
        <_>
          81 35 12 4 -1.</_>
        <_>
          84 35 6 4 2.</_></rects>
      <tilted>0</tilted></_>
    <_>
      <rects>
        <_>
          83 19 4 7 -1.</_>
        <_>
          84 19 2 7 2.</_></rects>
      <tilted>0</tilted></_>
    <_>
      <rects>
        <_>
          83 38 6 2 -1.</_>
        <_>
          85 38 2 2 3.</_></rects>
      <tilted>0</tilted></_>
    <_>
      <rects>
        <_>
          84 17 4 7 -1.</_>
        <_>
          85 17 2 7 2.</_></rects>
      <tilted>0</tilted></_>
    <_>
      <rects>
        <_>
          85 0 3 2 -1.</_>
        <_>
          85 1 3 1 2.</_></rects>
      <tilted>0</tilted></_>
    <_>
      <rects>
        <_>
          87 6 2 2 -1.</_>
        <_>
          87 6 1 1 2.</_>
        <_>
          88 7 1 1 2.</_></rects>
      <tilted>0</tilted></_>
    <_>
      <rects>
        <_>
          87 21 4 2 -1.</_>
        <_>
          88 22 2 2 2.</_></rects>
      <tilted>1</tilted></_>
    <_>
      <rects>
        <_>
          89 14 6 10 -1.</_>
        <_>
          91 14 2 10 3.</_></rects>
      <tilted>0</tilted></_>
    <_>
      <rects>
        <_>
          92 16 6 8 -1.</_>
        <_>
          94 16 2 8 3.</_></rects>
      <tilted>0</tilted></_>
    <_>
      <rects>
        <_>
          92 21 28 11 -1.</_>
        <_>
          106 21 14 11 2.</_></rects>
      <tilted>0</tilted></_>
    <_>
      <rects>
        <_>
          95 19 6 4 -1.</_>
        <_>
          97 19 2 4 3.</_></rects>
      <tilted>0</tilted></_>
    <_>
      <rects>
        <_>
          98 24 22 6 -1.</_>
        <_>
          109 24 11 6 2.</_></rects>
      <tilted>0</tilted></_>
    <_>
      <rects>
        <_>
          99 12 12 13 -1.</_>
        <_>
          105 12 6 13 2.</_></rects>
      <tilted>0</tilted></_>
    <_>
      <rects>
        <_>
          100 6 20 16 -1.</_>
        <_>
          110 6 10 16 2.</_></rects>
      <tilted>0</tilted></_>
    <_>
      <rects>
        <_>
          100 21 20 9 -1.</_>
        <_>
          110 21 10 9 2.</_></rects>
      <tilted>0</tilted></_>
    <_>
      <rects>
        <_>
          101 6 12 20 -1.</_>
        <_>
          105 6 4 20 3.</_></rects>
      <tilted>0</tilted></_>
    <_>
      <rects>
        <_>
          101 14 18 26 -1.</_>
        <_>
          101 14 9 13 2.</_>
        <_>
          110 27 9 13 2.</_></rects>
      <tilted>0</tilted></_>
    <_>
      <rects>
        <_>
          102 0 18 16 -1.</_>
        <_>
          102 0 9 8 2.</_>
        <_>
          111 8 9 8 2.</_></rects>
      <tilted>0</tilted></_>
    <_>
      <rects>
        <_>
          102 12 18 18 -1.</_>
        <_>
          111 12 9 18 2.</_></rects>
      <tilted>0</tilted></_>
    <_>
      <rects>
        <_>
          102 15 18 4 -1.</_>
        <_>
          111 15 9 4 2.</_></rects>
      <tilted>0</tilted></_>
    <_>
      <rects>
        <_>
          105 13 14 13 -1.</_>
        <_>
          105 13 7 13 2.</_></rects>
      <tilted>1</tilted></_>
    <_>
      <rects>
        <_>
          109 11 5 6 -1.</_>
        <_>
          109 13 5 2 3.</_></rects>
      <tilted>0</tilted></_>
    <_>
      <rects>
        <_>
          111 17 8 10 -1.</_>
        <_>
          111 17 4 10 2.</_></rects>
      <tilted>1</tilted></_>
    <_>
      <rects>
        <_>
          111 19 9 3 -1.</_>
        <_>
          111 20 9 1 3.</_></rects>
      <tilted>0</tilted></_>
    <_>
      <rects>
        <_>
          113 14 6 12 -1.</_>
        <_>
          113 17 6 6 2.</_></rects>
      <tilted>0</tilted></_>
    <_>
      <rects>
        <_>
          117 16 3 6 -1.</_>
        <_>
          117 18 3 2 3.</_></rects>
      <tilted>0</tilted></_></features></cascade>
</opencv_storage>
